<?xml version="1.0"?>
<opencv_storage>
<stage3>
  <maxWeakCount>8</maxWeakCount>
  <stageThreshold>-7.0408749580383301e-01</stageThreshold>
  <weakClassifiers>
    <_>
      <internalNodes>
        0 -1 137708 3.4650578163564205e-03</internalNodes>
      <leafValues>
        -7.8832119703292847e-01 5.8401304483413696e-01</leafValues></_>
    <_>
      <internalNodes>
        0 -1 65044 8.0626616254448891e-03</internalNodes>
      <leafValues>
        -3.9438727498054504e-01 6.6880834102630615e-01</leafValues></_>
    <_>
      <internalNodes>
        0 -1 114235 -3.9732884615659714e-03</internalNodes>
      <leafValues>
        5.5915808677673340e-01 -4.3567991256713867e-01</leafValues></_>
    <_>
      <internalNodes>
        0 -1 119340 -1.5816814266145229e-03</internalNodes>
      <leafValues>
        4.1665613651275635e-01 -5.7886165380477905e-01</leafValues></_>
    <_>
      <internalNodes>
        0 -1 136659 -1.0566527023911476e-02</internalNodes>
      <leafValues>
        6.0174697637557983e-01 -3.8711845874786377e-01</leafValues></_>
    <_>
      <internalNodes>
        0 -1 96093 2.8117555193603039e-03</internalNodes>
      <leafValues>
        -7.9113703966140747e-01 2.9374194145202637e-01</leafValues></_>
    <_>
      <internalNodes>
        0 -1 80070 -1.1150025576353073e-01</internalNodes>
      <leafValues>
        -6.1452376842498779e-01 3.3499583601951599e-01</leafValues></_>
    <_>
      <internalNodes>
        0 -1 34556 1.3202684931457043e-03</internalNodes>
      <leafValues>
        -7.9522418975830078e-01 2.5670522451400757e-01</leafValues></_></weakClassifiers></stage3>
</opencv_storage>
