<?xml version="1.0"?>
<opencv_storage>
<stage2>
  <maxWeakCount>6</maxWeakCount>
  <stageThreshold>-7.0970720052719116e-01</stageThreshold>
  <weakClassifiers>
    <_>
      <internalNodes>
        0 -1 96131 -1.5224982053041458e-02</internalNodes>
      <leafValues>
        -8.2554519176483154e-01 6.4885497093200684e-01</leafValues></_>
    <_>
      <internalNodes>
        0 -1 96214 1.7541515408083797e-03</internalNodes>
      <leafValues>
        -9.1858655214309692e-01 3.9246004819869995e-01</leafValues></_>
    <_>
      <internalNodes>
        0 -1 99764 2.8341704979538918e-02</internalNodes>
      <leafValues>
        -5.4858648777008057e-01 6.2319988012313843e-01</leafValues></_>
    <_>
      <internalNodes>
        0 -1 111441 1.6722928266972303e-03</internalNodes>
      <leafValues>
        -5.9649944305419922e-01 5.1246309280395508e-01</leafValues></_>
    <_>
      <internalNodes>
        0 -1 88301 -5.1394058391451836e-04</internalNodes>
      <leafValues>
        3.6218363046646118e-01 -7.7443993091583252e-01</leafValues></_>
    <_>
      <internalNodes>
        0 -1 133413 -4.7003041254356503e-04</internalNodes>
      <leafValues>
        4.7111740708351135e-01 -5.5352741479873657e-01</leafValues></_></weakClassifiers></stage2>
</opencv_storage>
