<?xml version="1.0"?>
<opencv_storage>
<stage4>
  <maxWeakCount>9</maxWeakCount>
  <stageThreshold>-5.9310173988342285e-01</stageThreshold>
  <weakClassifiers>
    <_>
      <internalNodes>
        0 -1 125433 1.5591760165989399e-03</internalNodes>
      <leafValues>
        6.1032027006149292e-01 -4.9468085169792175e-01</leafValues></_>
    <_>
      <internalNodes>
        0 -1 132197 3.2132035121321678e-03</internalNodes>
      <leafValues>
        -7.0263516902923584e-01 3.9054268598556519e-01</leafValues></_>
    <_>
      <internalNodes>
        0 -1 99809 6.9770991802215576e-02</internalNodes>
      <leafValues>
        -2.8202360868453979e-01 8.4878784418106079e-01</leafValues></_>
    <_>
      <internalNodes>
        0 -1 119024 -1.1056852526962757e-03</internalNodes>
      <leafValues>
        2.4983893334865570e-01 -7.4676048755645752e-01</leafValues></_>
    <_>
      <internalNodes>
        0 -1 78004 2.6754238642752171e-03</internalNodes>
      <leafValues>
        -7.7857333421707153e-01 2.3648072779178619e-01</leafValues></_>
    <_>
      <internalNodes>
        0 -1 89072 1.9194055348634720e-03</internalNodes>
      <leafValues>
        -4.9210578203201294e-01 4.1291323304176331e-01</leafValues></_>
    <_>
      <internalNodes>
        0 -1 135516 2.5864460039883852e-03</internalNodes>
      <leafValues>
        -4.8558741807937622e-01 3.6633524298667908e-01</leafValues></_>
    <_>
      <internalNodes>
        0 -1 68721 -2.9761688783764839e-02</internalNodes>
      <leafValues>
        -4.8714673519134521e-01 3.8324356079101563e-01</leafValues></_>
    <_>
      <internalNodes>
        0 -1 138310 -2.2255125804804265e-04</internalNodes>
      <leafValues>
        2.5248023867607117e-01 -7.2495299577713013e-01</leafValues></_></weakClassifiers></stage4>
</opencv_storage>
