<?xml version="1.0"?>
<opencv_storage>
<stage6>
  <maxWeakCount>13</maxWeakCount>
  <stageThreshold>-1.0467427968978882e+00</stageThreshold>
  <weakClassifiers>
    <_>
      <internalNodes>
        0 -1 91652 2.2660486400127411e-02</internalNodes>
      <leafValues>
        -9.6402876079082489e-02 7.0434784889221191e-01</leafValues></_>
    <_>
      <internalNodes>
        0 -1 142707 -8.4136263467371464e-04</internalNodes>
      <leafValues>
        3.2641065120697021e-01 -5.9945279359817505e-01</leafValues></_>
    <_>
      <internalNodes>
        0 -1 125422 -9.8258652724325657e-04</internalNodes>
      <leafValues>
        2.4377073347568512e-01 -6.3727116584777832e-01</leafValues></_>
    <_>
      <internalNodes>
        0 -1 57369 2.0859465003013611e-03</internalNodes>
      <leafValues>
        -5.5939102172851563e-01 2.8549823164939880e-01</leafValues></_>
    <_>
      <internalNodes>
        0 -1 104863 5.0239133997820318e-05</internalNodes>
      <leafValues>
        -7.2824996709823608e-01 1.7846205830574036e-01</leafValues></_>
    <_>
      <internalNodes>
        0 -1 145738 -1.8042236566543579e-02</internalNodes>
      <leafValues>
        4.9131685495376587e-01 -3.3129042387008667e-01</leafValues></_>
    <_>
      <internalNodes>
        0 -1 88745 -1.2975484132766724e-01</internalNodes>
      <leafValues>
        -4.0617761015892029e-01 3.3549237251281738e-01</leafValues></_>
    <_>
      <internalNodes>
        0 -1 132364 -1.3412567204795778e-04</internalNodes>
      <leafValues>
        -4.5112803578376770e-01 2.9351195693016052e-01</leafValues></_>
    <_>
      <internalNodes>
        0 -1 126109 -1.0183221893385053e-03</internalNodes>
      <leafValues>
        2.4450214207172394e-01 -5.6299924850463867e-01</leafValues></_>
    <_>
      <internalNodes>
        0 -1 103219 -2.7744760736823082e-03</internalNodes>
      <leafValues>
        2.3226420581340790e-01 -5.3378403186798096e-01</leafValues></_>
    <_>
      <internalNodes>
        0 -1 97396 1.3521788059733808e-04</internalNodes>
      <leafValues>
        1.9131681323051453e-01 -7.2337138652801514e-01</leafValues></_>
    <_>
      <internalNodes>
        0 -1 86437 -1.3633764348924160e-02</internalNodes>
      <leafValues>
        -7.6439690589904785e-01 1.5630476176738739e-01</leafValues></_>
    <_>
      <internalNodes>
        0 -1 102385 -2.1460116840898991e-03</internalNodes>
      <leafValues>
        -6.6861361265182495e-01 1.5678162872791290e-01</leafValues></_></weakClassifiers></stage6>
</opencv_storage>
