<?xml version="1.0"?>
<opencv_storage>
<stage5>
  <maxWeakCount>11</maxWeakCount>
  <stageThreshold>-1.4052109718322754e+00</stageThreshold>
  <weakClassifiers>
    <_>
      <internalNodes>
        0 -1 107251 -8.8362544775009155e-02</internalNodes>
      <leafValues>
        5.5921053886413574e-01 -5.6020069122314453e-01</leafValues></_>
    <_>
      <internalNodes>
        0 -1 22354 2.1160910837352276e-03</internalNodes>
      <leafValues>
        -7.0424354076385498e-01 2.4329540133476257e-01</leafValues></_>
    <_>
      <internalNodes>
        0 -1 87235 -1.3435575179755688e-02</internalNodes>
      <leafValues>
        -7.0415920019149780e-01 1.9458997249603271e-01</leafValues></_>
    <_>
      <internalNodes>
        0 -1 131316 -3.7872435059398413e-03</internalNodes>
      <leafValues>
        2.7753049135208130e-01 -5.7296723127365112e-01</leafValues></_>
    <_>
      <internalNodes>
        0 -1 88296 2.4091111845336854e-04</internalNodes>
      <leafValues>
        1.9445516169071198e-01 -8.2196152210235596e-01</leafValues></_>
    <_>
      <internalNodes>
        0 -1 87705 7.2817937470972538e-03</internalNodes>
      <leafValues>
        1.7612095177173615e-01 -7.9987585544586182e-01</leafValues></_>
    <_>
      <internalNodes>
        0 -1 125063 -2.0293511624913663e-04</internalNodes>
      <leafValues>
        1.5628933906555176e-01 -7.5913226604461670e-01</leafValues></_>
    <_>
      <internalNodes>
        0 -1 89387 -7.0246886461973190e-03</internalNodes>
      <leafValues>
        3.1110453605651855e-01 -4.7228583693504333e-01</leafValues></_>
    <_>
      <internalNodes>
        0 -1 138078 -4.4359726598486304e-04</internalNodes>
      <leafValues>
        -8.1197834014892578e-01 1.3508968055248260e-01</leafValues></_>
    <_>
      <internalNodes>
        0 -1 97396 2.9231148073449731e-04</internalNodes>
      <leafValues>
        1.8597230315208435e-01 -8.4625458717346191e-01</leafValues></_>
    <_>
      <internalNodes>
        0 -1 154368 1.3368742540478706e-02</internalNodes>
      <leafValues>
        1.0282676666975021e-01 -8.6659693717956543e-01</leafValues></_></weakClassifiers></stage5>
</opencv_storage>
