<?xml version="1.0"?>
<opencv_storage>
<stage2>
  <maxWeakCount>5</maxWeakCount>
  <stageThreshold>-9.9907439947128296e-01</stageThreshold>
  <weakClassifiers>
    <_>
      <internalNodes>
        0 -1 96131 -9.0270172804594040e-03</internalNodes>
      <leafValues>
        -7.7777779102325439e-01 3.5025382041931152e-01</leafValues></_>
    <_>
      <internalNodes>
        0 -1 91044 4.0948968380689621e-02</internalNodes>
      <leafValues>
        -5.4968059062957764e-01 6.9243901968002319e-01</leafValues></_>
    <_>
      <internalNodes>
        0 -1 133294 -1.7652382375672460e-03</internalNodes>
      <leafValues>
        5.9032499790191650e-01 -5.2738136053085327e-01</leafValues></_>
    <_>
      <internalNodes>
        0 -1 143197 -3.2966952858259901e-05</internalNodes>
      <leafValues>
        3.5073196887969971e-01 -8.3355551958084106e-01</leafValues></_>
    <_>
      <internalNodes>
        0 -1 135882 4.3250718154013157e-03</internalNodes>
      <leafValues>
        -5.3542143106460571e-01 5.0503331422805786e-01</leafValues></_></weakClassifiers></stage2>
</opencv_storage>
