<?xml version="1.0"?>
<opencv_storage>
<stage2>
  <maxWeakCount>6</maxWeakCount>
  <stageThreshold>-9.3477410078048706e-01</stageThreshold>
  <weakClassifiers>
    <_>
      <internalNodes>
        0 -1 118684 -2.8348220512270927e-03</internalNodes>
      <leafValues>
        5.4651165008544922e-01 -7.3437500000000000e-01</leafValues></_>
    <_>
      <internalNodes>
        0 -1 96131 -1.5396099537611008e-02</internalNodes>
      <leafValues>
        -9.1152250766754150e-01 3.2241812348365784e-01</leafValues></_>
    <_>
      <internalNodes>
        0 -1 91652 2.3534117266535759e-02</internalNodes>
      <leafValues>
        -5.0738793611526489e-01 6.8966186046600342e-01</leafValues></_>
    <_>
      <internalNodes>
        0 -1 138310 -1.5845146845094860e-04</internalNodes>
      <leafValues>
        4.6237283945083618e-01 -7.4499750137329102e-01</leafValues></_>
    <_>
      <internalNodes>
        0 -1 87192 1.4353252481669188e-03</internalNodes>
      <leafValues>
        -7.4113148450851440e-01 3.2519179582595825e-01</leafValues></_>
    <_>
      <internalNodes>
        0 -1 111441 1.0310953948646784e-03</internalNodes>
      <leafValues>
        -6.4041382074356079e-01 4.0437641739845276e-01</leafValues></_></weakClassifiers></stage2>
</opencv_storage>
