<?xml version="1.0"?>
<opencv_storage>
<stage4>
  <maxWeakCount>8</maxWeakCount>
  <stageThreshold>-1.0142810344696045e+00</stageThreshold>
  <weakClassifiers>
    <_>
      <internalNodes>
        0 -1 66239 -3.2086772844195366e-03</internalNodes>
      <leafValues>
        4.3700340390205383e-01 -6.2197089195251465e-01</leafValues></_>
    <_>
      <internalNodes>
        0 -1 126104 -1.4278453309088945e-03</internalNodes>
      <leafValues>
        3.7282824516296387e-01 -6.4721691608428955e-01</leafValues></_>
    <_>
      <internalNodes>
        0 -1 133294 -2.0152963697910309e-03</internalNodes>
      <leafValues>
        4.8670220375061035e-01 -4.9920400977134705e-01</leafValues></_>
    <_>
      <internalNodes>
        0 -1 78075 3.0216905288398266e-03</internalNodes>
      <leafValues>
        -8.8329702615737915e-01 3.4243744611740112e-01</leafValues></_>
    <_>
      <internalNodes>
        0 -1 107249 6.3749238848686218e-02</internalNodes>
      <leafValues>
        -4.1074660420417786e-01 6.0932177305221558e-01</leafValues></_>
    <_>
      <internalNodes>
        0 -1 126509 6.1386823654174805e-04</internalNodes>
      <leafValues>
        -7.8227847814559937e-01 2.4422805011272430e-01</leafValues></_>
    <_>
      <internalNodes>
        0 -1 111436 7.5639982242137194e-04</internalNodes>
      <leafValues>
        -7.1102792024612427e-01 3.0571240186691284e-01</leafValues></_>
    <_>
      <internalNodes>
        0 -1 120946 -3.4736976027488708e-02</internalNodes>
      <leafValues>
        -6.2514179944992065e-01 2.7894094586372375e-01</leafValues></_></weakClassifiers></stage4>
</opencv_storage>
