<?xml version="1.0"?>
<opencv_storage>
<cascade>
  <stageType>BOOST</stageType>
  <featureType>HAAR</featureType>
  <height>24</height>
  <width>24</width>
  <stageParams>
    <boostType>GAB</boostType>
    <minHitRate>9.9900001287460327e-01</minHitRate>
    <maxFalseAlarm>4.0000000596046448e-01</maxFalseAlarm>
    <weightTrimRate>9.4999999999999996e-01</weightTrimRate>
    <maxDepth>1</maxDepth>
    <maxWeakCount>100</maxWeakCount></stageParams>
  <featureParams>
    <maxCatCount>0</maxCatCount>
    <featSize>1</featSize>
    <mode>BASIC</mode></featureParams>
  <stageNum>10</stageNum>
  <stages>
    <!-- stage 0 -->
    <_>
      <maxWeakCount>3</maxWeakCount>
      <stageThreshold>-1.3499538898468018e+00</stageThreshold>
      <weakClassifiers>
        <_>
          <internalNodes>
            0 -1 19 6.4935372211039066e-03</internalNodes>
          <leafValues>
            -9.5291477441787720e-01 5.7565790414810181e-01</leafValues></_>
        <_>
          <internalNodes>
            0 -1 75 -8.6740101687610149e-04</internalNodes>
          <leafValues>
            6.3827770948410034e-01 -7.9739570617675781e-01</leafValues></_>
        <_>
          <internalNodes>
            0 -1 82 4.6320026740431786e-03</internalNodes>
          <leafValues>
            -9.4663488864898682e-01 4.0035665035247803e-01</leafValues></_></weakClassifiers></_>
    <!-- stage 1 -->
    <_>
      <maxWeakCount>6</maxWeakCount>
      <stageThreshold>-1.2757641077041626e+00</stageThreshold>
      <weakClassifiers>
        <_>
          <internalNodes>
            0 -1 50 2.8088041581213474e-03</internalNodes>
          <leafValues>
            -8.6757993698120117e-01 4.1666665673255920e-01</leafValues></_>
        <_>
          <internalNodes>
            0 -1 91 2.7515790425240993e-03</internalNodes>
          <leafValues>
            -7.9107862710952759e-01 4.7527793049812317e-01</leafValues></_>
        <_>
          <internalNodes>
            0 -1 41 3.7468662485480309e-03</internalNodes>
          <leafValues>
            -8.2938617467880249e-01 3.7291628122329712e-01</leafValues></_>
        <_>
          <internalNodes>
            0 -1 32 1.2552626430988312e-03</internalNodes>
          <leafValues>
            -6.4810764789581299e-01 4.9991324543952942e-01</leafValues></_>
        <_>
          <internalNodes>
            0 -1 69 -1.5371770132333040e-03</internalNodes>
          <leafValues>
            4.6857887506484985e-01 -7.3717564344406128e-01</leafValues></_>
        <_>
          <internalNodes>
            0 -1 18 3.0053043738007545e-03</internalNodes>
          <leafValues>
            -9.8184096813201904e-01 2.4724048376083374e-01</leafValues></_></weakClassifiers></_>
    <!-- stage 2 -->
    <_>
      <maxWeakCount>7</maxWeakCount>
      <stageThreshold>-1.3924646377563477e+00</stageThreshold>
      <weakClassifiers>
        <_>
          <internalNodes>
            0 -1 40 -9.0270172804594040e-03</internalNodes>
          <leafValues>
            -7.7802199125289917e-01 3.5254237055778503e-01</leafValues></_>
        <_>
          <internalNodes>
            0 -1 64 3.6347307264804840e-02</internalNodes>
          <leafValues>
            -5.2258539199829102e-01 7.5272166728973389e-01</leafValues></_>
        <_>
          <internalNodes>
            0 -1 84 -1.6793952090665698e-03</internalNodes>
          <leafValues>
            5.7497084140777588e-01 -5.1244437694549561e-01</leafValues></_>
        <_>
          <internalNodes>
            0 -1 43 -2.4429411860182881e-04</internalNodes>
          <leafValues>
            4.0544244647026062e-01 -7.5012898445129395e-01</leafValues></_>
        <_>
          <internalNodes>
            0 -1 85 3.8441573269665241e-03</internalNodes>
          <leafValues>
            -4.8300164937973022e-01 5.2716273069381714e-01</leafValues></_>
        <_>
          <internalNodes>
            0 -1 89 -3.6259129643440247e-02</internalNodes>
          <leafValues>
            -8.0714154243469238e-01 2.6772332191467285e-01</leafValues></_>
        <_>
          <internalNodes>
            0 -1 58 5.6156382197514176e-04</internalNodes>
          <leafValues>
            -6.7746925354003906e-01 2.9857924580574036e-01</leafValues></_></weakClassifiers></_>
    <!-- stage 3 -->
    <_>
      <maxWeakCount>9</maxWeakCount>
      <stageThreshold>-1.7515597343444824e+00</stageThreshold>
      <weakClassifiers>
        <_>
          <internalNodes>
            0 -1 10 1.0470697656273842e-02</internalNodes>
          <leafValues>
            -6.4892625808715820e-01 4.5454546809196472e-01</leafValues></_>
        <_>
          <internalNodes>
            0 -1 90 3.1902696937322617e-03</internalNodes>
          <leafValues>
            -8.6287927627563477e-01 2.6714211702346802e-01</leafValues></_>
        <_>
          <internalNodes>
            0 -1 15 9.5741357654333115e-04</internalNodes>
          <leafValues>
            -5.8206593990325928e-01 3.7974408268928528e-01</leafValues></_>
        <_>
          <internalNodes>
            0 -1 62 -4.1306018829345703e-03</internalNodes>
          <leafValues>
            4.5893540978431702e-01 -5.1661157608032227e-01</leafValues></_>
        <_>
          <internalNodes>
            0 -1 56 1.3297144323587418e-03</internalNodes>
          <leafValues>
            -6.1172676086425781e-01 3.4963586926460266e-01</leafValues></_>
        <_>
          <internalNodes>
            0 -1 88 -2.1399795077741146e-03</internalNodes>
          <leafValues>
            4.8290109634399414e-01 -4.2476958036422729e-01</leafValues></_>
        <_>
          <internalNodes>
            0 -1 20 8.1720696762204170e-03</internalNodes>
          <leafValues>
            -7.8202581405639648e-01 2.7487733960151672e-01</leafValues></_>
        <_>
          <internalNodes>
            0 -1 46 -2.8891523834317923e-04</internalNodes>
          <leafValues>
            3.6327835917472839e-01 -4.6796751022338867e-01</leafValues></_>
        <_>
          <internalNodes>
            0 -1 60 -2.2298491094261408e-03</internalNodes>
          <leafValues>
            2.7966266870498657e-01 -6.2595379352569580e-01</leafValues></_></weakClassifiers></_>
    <!-- stage 4 -->
    <_>
      <maxWeakCount>10</maxWeakCount>
      <stageThreshold>-1.4813395738601685e+00</stageThreshold>
      <weakClassifiers>
        <_>
          <internalNodes>
            0 -1 53 -4.6847008168697357e-02</internalNodes>
          <leafValues>
            4.9373432993888855e-01 -6.3306087255477905e-01</leafValues></_>
        <_>
          <internalNodes>
            0 -1 77 -1.4725511427968740e-03</internalNodes>
          <leafValues>
            3.2073441147804260e-01 -6.6812938451766968e-01</leafValues></_>
        <_>
          <internalNodes>
            0 -1 22 -4.1115563362836838e-03</internalNodes>
          <leafValues>
            3.7669268250465393e-01 -4.8485448956489563e-01</leafValues></_>
        <_>
          <internalNodes>
            0 -1 28 5.7684769853949547e-04</internalNodes>
          <leafValues>
            -7.6971185207366943e-01 2.2294719517230988e-01</leafValues></_>
        <_>
          <internalNodes>
            0 -1 93 -3.5517774522304535e-02</internalNodes>
          <leafValues>
            6.3348472118377686e-01 -3.1037318706512451e-01</leafValues></_>
        <_>
          <internalNodes>
            0 -1 66 -1.6208786983042955e-03</internalNodes>
          <leafValues>
            3.3328512310981750e-01 -5.7238829135894775e-01</leafValues></_>
        <_>
          <internalNodes>
            0 -1 12 8.9577883481979370e-03</internalNodes>
          <leafValues>
            -7.2250628471374512e-01 3.0582684278488159e-01</leafValues></_>
        <_>
          <internalNodes>
            0 -1 5 -1.5024274587631226e-01</internalNodes>
          <leafValues>
            -5.9005713462829590e-01 3.1765416264533997e-01</leafValues></_>
        <_>
          <internalNodes>
            0 -1 54 -4.5075494563207030e-04</internalNodes>
          <leafValues>
            2.0613424479961395e-01 -6.8012946844100952e-01</leafValues></_>
        <_>
          <internalNodes>
            0 -1 92 -1.3264808803796768e-03</internalNodes>
          <leafValues>
            -8.5192173719406128e-01 1.9444668292999268e-01</leafValues></_></weakClassifiers></_>
    <!-- stage 5 -->
    <_>
      <maxWeakCount>11</maxWeakCount>
      <stageThreshold>-1.7227538824081421e+00</stageThreshold>
      <weakClassifiers>
        <_>
          <internalNodes>
            0 -1 2 1.1125522106885910e-01</internalNodes>
          <leafValues>
            -5.5499577522277832e-01 5.2103561162948608e-01</leafValues></_>
        <_>
          <internalNodes>
            0 -1 76 -6.6203495953232050e-04</internalNodes>
          <leafValues>
            3.1095242500305176e-01 -5.4471415281295776e-01</leafValues></_>
        <_>
          <internalNodes>
            0 -1 98 3.3786339918151498e-04</internalNodes>
          <leafValues>
            1.9834114611148834e-01 -8.7596714496612549e-01</leafValues></_>
        <_>
          <internalNodes>
            0 -1 49 -8.1583701074123383e-02</internalNodes>
          <leafValues>
            -3.4659424424171448e-01 5.7347363233566284e-01</leafValues></_>
        <_>
          <internalNodes>
            0 -1 16 1.4431390445679426e-03</internalNodes>
          <leafValues>
            -7.2619324922561646e-01 2.0328615605831146e-01</leafValues></_>
        <_>
          <internalNodes>
            0 -1 99 -1.8560737371444702e-02</internalNodes>
          <leafValues>
            5.5008721351623535e-01 -2.9423299431800842e-01</leafValues></_>
        <_>
          <internalNodes>
            0 -1 14 -3.1990199349820614e-03</internalNodes>
          <leafValues>
            3.1631052494049072e-01 -5.0874966382980347e-01</leafValues></_>
        <_>
          <internalNodes>
            0 -1 90 2.0178435370326042e-03</internalNodes>
          <leafValues>
            -9.1633343696594238e-01 1.7313177883625031e-01</leafValues></_>
        <_>
          <internalNodes>
            0 -1 70 3.9077964611351490e-03</internalNodes>
          <leafValues>
            2.1371224522590637e-01 -7.7735042572021484e-01</leafValues></_>
        <_>
          <internalNodes>
            0 -1 52 -6.0865930281579494e-03</internalNodes>
          <leafValues>
            3.7664109468460083e-01 -3.9283975958824158e-01</leafValues></_>
        <_>
          <internalNodes>
            0 -1 24 1.0970759205520153e-02</internalNodes>
          <leafValues>
            1.4031289517879486e-01 -8.8425177335739136e-01</leafValues></_></weakClassifiers></_>
    <!-- stage 6 -->
    <_>
      <maxWeakCount>12</maxWeakCount>
      <stageThreshold>-1.3134382963180542e+00</stageThreshold>
      <weakClassifiers>
        <_>
          <internalNodes>
            0 -1 1 4.1975885629653931e-02</internalNodes>
          <leafValues>
            -6.1048686504364014e-01 3.5185185074806213e-01</leafValues></_>
        <_>
          <internalNodes>
            0 -1 44 1.7248818767257035e-04</internalNodes>
          <leafValues>
            1.7990857362747192e-01 -7.7560222148895264e-01</leafValues></_>
        <_>
          <internalNodes>
            0 -1 40 -5.8999829925596714e-03</internalNodes>
          <leafValues>
            -3.8595551252365112e-01 4.0976515412330627e-01</leafValues></_>
        <_>
          <internalNodes>
            0 -1 84 -2.0523699931800365e-03</internalNodes>
          <leafValues>
            3.8937535881996155e-01 -4.0688616037368774e-01</leafValues></_>
        <_>
          <internalNodes>
            0 -1 73 7.0244586095213890e-03</internalNodes>
          <leafValues>
            -4.7967544198036194e-01 3.3693891763687134e-01</leafValues></_>
        <_>
          <internalNodes>
            0 -1 6 1.2667202390730381e-03</internalNodes>
          <leafValues>
            -6.3285428285598755e-01 2.3444479703903198e-01</leafValues></_>
        <_>
          <internalNodes>
            0 -1 67 -6.5945426467806101e-04</internalNodes>
          <leafValues>
            -7.7734225988388062e-01 1.4524780213832855e-01</leafValues></_>
        <_>
          <internalNodes>
            0 -1 32 1.4109814073890448e-03</internalNodes>
          <leafValues>
            -5.2185708284378052e-01 2.7551499009132385e-01</leafValues></_>
        <_>
          <internalNodes>
            0 -1 74 -2.7868180768564343e-04</internalNodes>
          <leafValues>
            2.2690783441066742e-01 -5.6572741270065308e-01</leafValues></_>
        <_>
          <internalNodes>
            0 -1 78 6.2009843531996012e-04</internalNodes>
          <leafValues>
            -7.4507778882980347e-01 1.7745557427406311e-01</leafValues></_>
        <_>
          <internalNodes>
            0 -1 21 4.9830670468509197e-03</internalNodes>
          <leafValues>
            1.4768338203430176e-01 -7.7813524007797241e-01</leafValues></_>
        <_>
          <internalNodes>
            0 -1 23 -5.9161752462387085e-02</internalNodes>
          <leafValues>
            -5.4156953096389771e-01 2.4026301503181458e-01</leafValues></_></weakClassifiers></_>
    <!-- stage 7 -->
    <_>
      <maxWeakCount>15</maxWeakCount>
      <stageThreshold>-1.6343173980712891e+00</stageThreshold>
      <weakClassifiers>
        <_>
          <internalNodes>
            0 -1 33 8.2674235105514526e-02</internalNodes>
          <leafValues>
            -5.3071671724319458e-01 3.7195122241973877e-01</leafValues></_>
        <_>
          <internalNodes>
            0 -1 39 9.2429784126579762e-04</internalNodes>
          <leafValues>
            -7.0815688371658325e-01 1.7437303066253662e-01</leafValues></_>
        <_>
          <internalNodes>
            0 -1 51 8.9743174612522125e-04</internalNodes>
          <leafValues>
            -8.8026386499404907e-01 1.4966769516468048e-01</leafValues></_>
        <_>
          <internalNodes>
            0 -1 9 2.1742936223745346e-02</internalNodes>
          <leafValues>
            -2.7957156300544739e-01 5.5970001220703125e-01</leafValues></_>
        <_>
          <internalNodes>
            0 -1 42 -4.0599470958113670e-03</internalNodes>
          <leafValues>
            -7.4819380044937134e-01 2.2135952115058899e-01</leafValues></_>
        <_>
          <internalNodes>
            0 -1 97 -1.7730609397403896e-04</internalNodes>
          <leafValues>
            1.7456091940402985e-01 -5.5280452966690063e-01</leafValues></_>
        <_>
          <internalNodes>
            0 -1 96 1.6432041302323341e-03</internalNodes>
          <leafValues>
            -7.5354516506195068e-01 1.8347470462322235e-01</leafValues></_>
        <_>
          <internalNodes>
            0 -1 80 1.3550688512623310e-02</internalNodes>
          <leafValues>
            2.0474274456501007e-01 -5.0689744949340820e-01</leafValues></_>
        <_>
          <internalNodes>
            0 -1 47 1.9905675435438752e-04</internalNodes>
          <leafValues>
            -4.1151380538940430e-01 2.9097002744674683e-01</leafValues></_>
        <_>
          <internalNodes>
            0 -1 29 2.5886044022627175e-04</internalNodes>
          <leafValues>
            1.7902484536170959e-01 -7.4229007959365845e-01</leafValues></_>
        <_>
          <internalNodes>
            0 -1 37 1.0503013618290424e-03</internalNodes>
          <leafValues>
            -8.4904295206069946e-01 1.1679833382368088e-01</leafValues></_>
        <_>
          <internalNodes>
            0 -1 61 -6.9511858746409416e-03</internalNodes>
          <leafValues>
            -6.9548177719116211e-01 1.6982106864452362e-01</leafValues></_>
        <_>
          <internalNodes>
            0 -1 3 4.1724317707121372e-03</internalNodes>
          <leafValues>
            1.7414104938507080e-01 -6.6356885433197021e-01</leafValues></_>
        <_>
          <internalNodes>
            0 -1 59 -1.3920979108661413e-03</internalNodes>
          <leafValues>
            1.9433563947677612e-01 -5.3860628604888916e-01</leafValues></_>
        <_>
          <internalNodes>
            0 -1 83 8.4829539991915226e-04</internalNodes>
          <leafValues>
            1.4458042383193970e-01 -7.7687573432922363e-01</leafValues></_></weakClassifiers></_>
    <!-- stage 8 -->
    <_>
      <maxWeakCount>15</maxWeakCount>
      <stageThreshold>-1.5046819448471069e+00</stageThreshold>
      <weakClassifiers>
        <_>
          <internalNodes>
            0 -1 8 3.0709480866789818e-02</internalNodes>
          <leafValues>
            -5.5655294656753540e-01 3.1088083982467651e-01</leafValues></_>
        <_>
          <internalNodes>
            0 -1 45 1.3301218859851360e-04</internalNodes>
          <leafValues>
            1.3727356493473053e-01 -7.5068455934524536e-01</leafValues></_>
        <_>
          <internalNodes>
            0 -1 57 1.0979974467772990e-04</internalNodes>
          <leafValues>
            -6.6118872165679932e-01 1.5791510045528412e-01</leafValues></_>
        <_>
          <internalNodes>
            0 -1 38 -5.6781154125928879e-04</internalNodes>
          <leafValues>
            2.8580516576766968e-01 -4.8568484187126160e-01</leafValues></_>
        <_>
          <internalNodes>
            0 -1 94 7.3601782787591219e-05</internalNodes>
          <leafValues>
            -4.3265232443809509e-01 2.9260957241058350e-01</leafValues></_>
        <_>
          <internalNodes>
            0 -1 13 -4.4728764332830906e-03</internalNodes>
          <leafValues>
            -7.6410102844238281e-01 1.6948553919792175e-01</leafValues></_>
        <_>
          <internalNodes>
            0 -1 100 -3.7654917687177658e-02</internalNodes>
          <leafValues>
            5.8795571327209473e-01 -2.4261790513992310e-01</leafValues></_>
        <_>
          <internalNodes>
            0 -1 4 1.4785643666982651e-02</internalNodes>
          <leafValues>
            1.3446684181690216e-01 -8.9812862873077393e-01</leafValues></_>
        <_>
          <internalNodes>
            0 -1 81 -1.2783933430910110e-02</internalNodes>
          <leafValues>
            -6.4881712198257446e-01 1.3262370228767395e-01</leafValues></_>
        <_>
          <internalNodes>
            0 -1 17 5.7788826525211334e-03</internalNodes>
          <leafValues>
            2.1144147217273712e-01 -5.8909630775451660e-01</leafValues></_>
        <_>
          <internalNodes>
            0 -1 87 -3.4249511081725359e-03</internalNodes>
          <leafValues>
            -8.0888712406158447e-01 1.2890821695327759e-01</leafValues></_>
        <_>
          <internalNodes>
            0 -1 0 8.6086504161357880e-03</internalNodes>
          <leafValues>
            -6.6817116737365723e-01 1.3427796959877014e-01</leafValues></_>
        <_>
          <internalNodes>
            0 -1 25 -5.7923025451600552e-03</internalNodes>
          <leafValues>
            -8.8689893484115601e-01 1.0586697608232498e-01</leafValues></_>
        <_>
          <internalNodes>
            0 -1 48 1.6776798292994499e-03</internalNodes>
          <leafValues>
            -3.1171050667762756e-01 3.4119817614555359e-01</leafValues></_>
        <_>
          <internalNodes>
            0 -1 95 -2.0400371868163347e-03</internalNodes>
          <leafValues>
            -6.4790797233581543e-01 1.5591034293174744e-01</leafValues></_></weakClassifiers></_>
    <!-- stage 9 -->
    <_>
      <maxWeakCount>18</maxWeakCount>
      <stageThreshold>-1.6326112747192383e+00</stageThreshold>
      <weakClassifiers>
        <_>
          <internalNodes>
            0 -1 65 -3.9875350892543793e-02</internalNodes>
          <leafValues>
            2.5628140568733215e-01 -5.4627948999404907e-01</leafValues></_>
        <_>
          <internalNodes>
            0 -1 86 2.0869672298431396e-03</internalNodes>
          <leafValues>
            -4.3718656897544861e-01 2.3741148412227631e-01</leafValues></_>
        <_>
          <internalNodes>
            0 -1 63 8.5311867296695709e-03</internalNodes>
          <leafValues>
            -3.2113251090049744e-01 3.3450722694396973e-01</leafValues></_>
        <_>
          <internalNodes>
            0 -1 26 9.3010673299431801e-04</internalNodes>
          <leafValues>
            2.0864297449588776e-01 -5.2709251642227173e-01</leafValues></_>
        <_>
          <internalNodes>
            0 -1 35 -2.8837416321039200e-03</internalNodes>
          <leafValues>
            -8.3724933862686157e-01 1.6048297286033630e-01</leafValues></_>
        <_>
          <internalNodes>
            0 -1 27 -1.7183194868266582e-03</internalNodes>
          <leafValues>
            3.0321705341339111e-01 -3.6444064974784851e-01</leafValues></_>
        <_>
          <internalNodes>
            0 -1 71 2.6486136484891176e-03</internalNodes>
          <leafValues>
            -7.1245771646499634e-01 1.2229016423225403e-01</leafValues></_>
        <_>
          <internalNodes>
            0 -1 68 -3.5896804183721542e-04</internalNodes>
          <leafValues>
            -5.7167154550552368e-01 1.6367235779762268e-01</leafValues></_>
        <_>
          <internalNodes>
            0 -1 72 -1.1333569418638945e-03</internalNodes>
          <leafValues>
            2.1342322230339050e-01 -4.7101107239723206e-01</leafValues></_>
        <_>
          <internalNodes>
            0 -1 7 -7.0054605603218079e-02</internalNodes>
          <leafValues>
            -1.8757037818431854e-01 5.9020698070526123e-01</leafValues></_>
        <_>
          <internalNodes>
            0 -1 68 3.7533132126554847e-04</internalNodes>
          <leafValues>
            1.7537634074687958e-01 -6.4873504638671875e-01</leafValues></_>
        <_>
          <internalNodes>
            0 -1 30 -3.5446166293695569e-04</internalNodes>
          <leafValues>
            2.7332168817520142e-01 -3.8295498490333557e-01</leafValues></_>
        <_>
          <internalNodes>
            0 -1 79 -1.6294297529384494e-03</internalNodes>
          <leafValues>
            -6.5306335687637329e-01 1.6470019519329071e-01</leafValues></_>
        <_>
          <internalNodes>
            0 -1 36 6.6449129953980446e-03</internalNodes>
          <leafValues>
            1.1498948931694031e-01 -8.0397588014602661e-01</leafValues></_>
        <_>
          <internalNodes>
            0 -1 34 9.9794531706720591e-04</internalNodes>
          <leafValues>
            -7.6629513502120972e-01 1.1995983868837357e-01</leafValues></_>
        <_>
          <internalNodes>
            0 -1 11 2.0833465456962585e-01</internalNodes>
          <leafValues>
            -1.6715036332607269e-01 7.0439863204956055e-01</leafValues></_>
        <_>
          <internalNodes>
            0 -1 31 3.2836457248777151e-03</internalNodes>
          <leafValues>
            1.4495456218719482e-01 -7.3134922981262207e-01</leafValues></_>
        <_>
          <internalNodes>
            0 -1 55 4.9922098405659199e-03</internalNodes>
          <leafValues>
            8.8045671582221985e-02 -8.8426572084426880e-01</leafValues></_></weakClassifiers></_></stages>
  <features>
    <_>
      <rects>
        <_>
          0 11 22 2 -1.</_>
        <_>
          0 12 22 1 2.</_></rects>
      <tilted>0</tilted></_>
    <_>
      <rects>
        <_>
          1 1 12 8 -1.</_>
        <_>
          1 1 6 4 2.</_>
        <_>
          7 5 6 4 2.</_></rects>
      <tilted>0</tilted></_>
    <_>
      <rects>
        <_>
          2 4 10 17 -1.</_>
        <_>
          7 4 5 17 2.</_></rects>
      <tilted>0</tilted></_>
    <_>
      <rects>
        <_>
          2 12 6 2 -1.</_>
        <_>
          2 13 6 1 2.</_></rects>
      <tilted>0</tilted></_>
    <_>
      <rects>
        <_>
          2 12 18 4 -1.</_>
        <_>
          2 12 9 2 2.</_>
        <_>
          11 14 9 2 2.</_></rects>
      <tilted>0</tilted></_>
    <_>
      <rects>
        <_>
          2 17 15 6 -1.</_>
        <_>
          2 19 15 2 2.</_></rects>
      <tilted>0</tilted></_>
    <_>
      <rects>
        <_>
          3 11 8 2 -1.</_>
        <_>
          3 11 4 1 2.</_>
        <_>
          7 12 4 1 2.</_></rects>
      <tilted>0</tilted></_>
    <_>
      <rects>
        <_>
          3 17 18 5 -1.</_>
        <_>
          9 17 6 5 2.</_></rects>
      <tilted>0</tilted></_>
    <_>
      <rects>
        <_>
          4 0 8 8 -1.</_>
        <_>
          4 0 4 4 2.</_>
        <_>
          8 4 4 4 2.</_></rects>
      <tilted>0</tilted></_>
    <_>
      <rects>
        <_>
          4 7 4 11 -1.</_>
        <_>
          6 7 2 11 2.</_></rects>
      <tilted>0</tilted></_>
    <_>
      <rects>
        <_>
          4 7 8 2 -1.</_>
        <_>
          8 7 4 2 2.</_></rects>
      <tilted>0</tilted></_>
    <_>
      <rects>
        <_>
          4 7 16 17 -1.</_>
        <_>
          12 7 8 17 2.</_></rects>
      <tilted>0</tilted></_>
    <_>
      <rects>
        <_>
          4 11 17 2 -1.</_>
        <_>
          4 12 17 1 2.</_></rects>
      <tilted>0</tilted></_>
    <_>
      <rects>
        <_>
          4 13 18 2 -1.</_>
        <_>
          4 13 9 1 2.</_>
        <_>
          13 14 9 1 2.</_></rects>
      <tilted>0</tilted></_>
    <_>
      <rects>
        <_>
          5 8 6 4 -1.</_>
        <_>
          5 8 3 2 2.</_>
        <_>
          8 10 3 2 2.</_></rects>
      <tilted>0</tilted></_>
    <_>
      <rects>
        <_>
          5 11 4 2 -1.</_>
        <_>
          5 11 2 1 2.</_>
        <_>
          7 12 2 1 2.</_></rects>
      <tilted>0</tilted></_>
    <_>
      <rects>
        <_>
          5 11 4 2 -1.</_>
        <_>
          5 12 4 1 2.</_></rects>
      <tilted>0</tilted></_>
    <_>
      <rects>
        <_>
          5 11 9 12 -1.</_>
        <_>
          5 17 9 6 2.</_></rects>
      <tilted>0</tilted></_>
    <_>
      <rects>
        <_>
          5 11 10 2 -1.</_>
        <_>
          5 12 10 1 2.</_></rects>
      <tilted>0</tilted></_>
    <_>
      <rects>
        <_>
          5 11 12 2 -1.</_>
        <_>
          5 12 12 1 2.</_></rects>
      <tilted>0</tilted></_>
    <_>
      <rects>
        <_>
          5 11 17 2 -1.</_>
        <_>
          5 12 17 1 2.</_></rects>
      <tilted>0</tilted></_>
    <_>
      <rects>
        <_>
          5 12 16 2 -1.</_>
        <_>
          5 12 8 1 2.</_>
        <_>
          13 13 8 1 2.</_></rects>
      <tilted>0</tilted></_>
    <_>
      <rects>
        <_>
          6 6 4 6 -1.</_>
        <_>
          6 6 2 3 2.</_>
        <_>
          8 9 2 3 2.</_></rects>
      <tilted>0</tilted></_>
    <_>
      <rects>
        <_>
          6 12 15 2 -1.</_>
        <_>
          11 12 5 2 2.</_></rects>
      <tilted>0</tilted></_>
    <_>
      <rects>
        <_>
          6 12 12 4 -1.</_>
        <_>
          6 12 6 2 2.</_>
        <_>
          12 14 6 2 2.</_></rects>
      <tilted>0</tilted></_>
    <_>
      <rects>
        <_>
          6 15 5 2 -1.</_>
        <_>
          6 16 5 1 2.</_></rects>
      <tilted>0</tilted></_>
    <_>
      <rects>
        <_>
          7 2 4 16 -1.</_>
        <_>
          7 2 2 8 2.</_>
        <_>
          9 10 2 8 2.</_></rects>
      <tilted>0</tilted></_>
    <_>
      <rects>
        <_>
          7 11 6 2 -1.</_>
        <_>
          7 11 3 1 2.</_>
        <_>
          10 12 3 1 2.</_></rects>
      <tilted>0</tilted></_>
    <_>
      <rects>
        <_>
          7 12 6 2 -1.</_>
        <_>
          7 13 6 1 2.</_></rects>
      <tilted>0</tilted></_>
    <_>
      <rects>
        <_>
          7 14 1 2 -1.</_>
        <_>
          7 15 1 1 2.</_></rects>
      <tilted>0</tilted></_>
    <_>
      <rects>
        <_>
          7 16 4 2 -1.</_>
        <_>
          7 16 2 1 2.</_>
        <_>
          9 17 2 1 2.</_></rects>
      <tilted>0</tilted></_>
    <_>
      <rects>
        <_>
          7 16 10 2 -1.</_>
        <_>
          7 16 5 1 2.</_>
        <_>
          12 17 5 1 2.</_></rects>
      <tilted>0</tilted></_>
    <_>
      <rects>
        <_>
          7 17 4 4 -1.</_>
        <_>
          7 17 2 2 2.</_>
        <_>
          9 19 2 2 2.</_></rects>
      <tilted>0</tilted></_>
    <_>
      <rects>
        <_>
          8 1 9 8 -1.</_>
        <_>
          8 5 9 4 2.</_></rects>
      <tilted>0</tilted></_>
    <_>
      <rects>
        <_>
          8 9 1 6 -1.</_>
        <_>
          8 12 1 3 2.</_></rects>
      <tilted>0</tilted></_>
    <_>
      <rects>
        <_>
          8 9 2 6 -1.</_>
        <_>
          8 9 1 3 2.</_>
        <_>
          9 12 1 3 2.</_></rects>
      <tilted>0</tilted></_>
    <_>
      <rects>
        <_>
          8 9 3 4 -1.</_>
        <_>
          8 11 3 2 2.</_></rects>
      <tilted>0</tilted></_>
    <_>
      <rects>
        <_>
          8 9 3 8 -1.</_>
        <_>
          8 13 3 4 2.</_></rects>
      <tilted>0</tilted></_>
    <_>
      <rects>
        <_>
          8 10 3 2 -1.</_>
        <_>
          8 11 3 1 2.</_></rects>
      <tilted>0</tilted></_>
    <_>
      <rects>
        <_>
          8 11 6 1 -1.</_>
        <_>
          11 11 3 1 2.</_></rects>
      <tilted>0</tilted></_>
    <_>
      <rects>
        <_>
          8 11 9 1 -1.</_>
        <_>
          11 11 3 1 2.</_></rects>
      <tilted>0</tilted></_>
    <_>
      <rects>
        <_>
          8 11 3 4 -1.</_>
        <_>
          8 13 3 2 2.</_></rects>
      <tilted>0</tilted></_>
    <_>
      <rects>
        <_>
          8 11 8 2 -1.</_>
        <_>
          8 11 4 1 2.</_>
        <_>
          12 12 4 1 2.</_></rects>
      <tilted>0</tilted></_>
    <_>
      <rects>
        <_>
          8 14 1 4 -1.</_>
        <_>
          8 16 1 2 2.</_></rects>
      <tilted>0</tilted></_>
    <_>
      <rects>
        <_>
          8 14 2 2 -1.</_>
        <_>
          8 15 2 1 2.</_></rects>
      <tilted>0</tilted></_>
    <_>
      <rects>
        <_>
          8 15 1 2 -1.</_>
        <_>
          8 16 1 1 2.</_></rects>
      <tilted>0</tilted></_>
    <_>
      <rects>
        <_>
          8 17 2 1 -1.</_>
        <_>
          9 17 1 1 2.</_></rects>
      <tilted>0</tilted></_>
    <_>
      <rects>
        <_>
          8 18 2 2 -1.</_>
        <_>
          8 18 1 1 2.</_>
        <_>
          9 19 1 1 2.</_></rects>
      <tilted>0</tilted></_>
    <_>
      <rects>
        <_>
          8 18 4 4 -1.</_>
        <_>
          8 18 2 2 2.</_>
        <_>
          10 20 2 2 2.</_></rects>
      <tilted>0</tilted></_>
    <_>
      <rects>
        <_>
          9 1 7 12 -1.</_>
        <_>
          9 5 7 4 2.</_></rects>
      <tilted>0</tilted></_>
    <_>
      <rects>
        <_>
          9 10 4 2 -1.</_>
        <_>
          11 10 2 2 2.</_></rects>
      <tilted>0</tilted></_>
    <_>
      <rects>
        <_>
          9 11 3 2 -1.</_>
        <_>
          9 12 3 1 2.</_></rects>
      <tilted>0</tilted></_>
    <_>
      <rects>
        <_>
          9 20 5 4 -1.</_>
        <_>
          9 22 5 2 2.</_></rects>
      <tilted>0</tilted></_>
    <_>
      <rects>
        <_>
          10 1 14 8 -1.</_>
        <_>
          10 1 7 4 2.</_>
        <_>
          17 5 7 4 2.</_></rects>
      <tilted>0</tilted></_>
    <_>
      <rects>
        <_>
          10 8 1 4 -1.</_>
        <_>
          10 10 1 2 2.</_></rects>
      <tilted>0</tilted></_>
    <_>
      <rects>
        <_>
          10 8 2 3 -1.</_>
        <_>
          11 8 1 3 2.</_></rects>
      <tilted>0</tilted></_>
    <_>
      <rects>
        <_>
          10 8 2 6 -1.</_>
        <_>
          11 8 1 6 2.</_></rects>
      <tilted>0</tilted></_>
    <_>
      <rects>
        <_>
          10 9 2 2 -1.</_>
        <_>
          11 9 1 2 2.</_></rects>
      <tilted>0</tilted></_>
    <_>
      <rects>
        <_>
          10 10 2 2 -1.</_>
        <_>
          11 10 1 2 2.</_></rects>
      <tilted>0</tilted></_>
    <_>
      <rects>
        <_>
          10 11 6 1 -1.</_>
        <_>
          13 11 3 1 2.</_></rects>
      <tilted>0</tilted></_>
    <_>
      <rects>
        <_>
          10 11 14 2 -1.</_>
        <_>
          10 11 7 1 2.</_>
        <_>
          17 12 7 1 2.</_></rects>
      <tilted>0</tilted></_>
    <_>
      <rects>
        <_>
          10 15 1 3 -1.</_>
        <_>
          10 16 1 1 2.</_></rects>
      <tilted>0</tilted></_>
    <_>
      <rects>
        <_>
          10 20 5 4 -1.</_>
        <_>
          10 22 5 2 2.</_></rects>
      <tilted>0</tilted></_>
    <_>
      <rects>
        <_>
          10 20 12 4 -1.</_>
        <_>
          10 20 6 2 2.</_>
        <_>
          16 22 6 2 2.</_></rects>
      <tilted>0</tilted></_>
    <_>
      <rects>
        <_>
          11 0 4 10 -1.</_>
        <_>
          11 5 4 5 2.</_></rects>
      <tilted>0</tilted></_>
    <_>
      <rects>
        <_>
          11 0 10 8 -1.</_>
        <_>
          11 0 5 4 2.</_>
        <_>
          16 4 5 4 2.</_></rects>
      <tilted>0</tilted></_>
    <_>
      <rects>
        <_>
          11 6 4 6 -1.</_>
        <_>
          11 6 2 3 2.</_>
        <_>
          13 9 2 3 2.</_></rects>
      <tilted>0</tilted></_>
    <_>
      <rects>
        <_>
          11 7 1 2 -1.</_>
        <_>
          11 8 1 1 2.</_></rects>
      <tilted>0</tilted></_>
    <_>
      <rects>
        <_>
          11 7 2 2 -1.</_>
        <_>
          11 7 1 1 2.</_>
        <_>
          12 8 1 1 2.</_></rects>
      <tilted>0</tilted></_>
    <_>
      <rects>
        <_>
          11 9 4 4 -1.</_>
        <_>
          13 9 2 4 2.</_></rects>
      <tilted>0</tilted></_>
    <_>
      <rects>
        <_>
          11 11 2 6 -1.</_>
        <_>
          11 14 2 3 2.</_></rects>
      <tilted>0</tilted></_>
    <_>
      <rects>
        <_>
          11 11 5 2 -1.</_>
        <_>
          11 12 5 1 2.</_></rects>
      <tilted>0</tilted></_>
    <_>
      <rects>
        <_>
          12 5 2 8 -1.</_>
        <_>
          12 5 1 4 2.</_>
        <_>
          13 9 1 4 2.</_></rects>
      <tilted>0</tilted></_>
    <_>
      <rects>
        <_>
          12 8 10 4 -1.</_>
        <_>
          12 8 5 2 2.</_>
        <_>
          17 10 5 2 2.</_></rects>
      <tilted>0</tilted></_>
    <_>
      <rects>
        <_>
          12 9 2 2 -1.</_>
        <_>
          13 9 1 2 2.</_></rects>
      <tilted>0</tilted></_>
    <_>
      <rects>
        <_>
          12 10 2 2 -1.</_>
        <_>
          13 10 1 2 2.</_></rects>
      <tilted>0</tilted></_>
    <_>
      <rects>
        <_>
          12 11 2 1 -1.</_>
        <_>
          13 11 1 1 2.</_></rects>
      <tilted>0</tilted></_>
    <_>
      <rects>
        <_>
          12 11 4 1 -1.</_>
        <_>
          14 11 2 1 2.</_></rects>
      <tilted>0</tilted></_>
    <_>
      <rects>
        <_>
          12 12 5 2 -1.</_>
        <_>
          12 13 5 1 2.</_></rects>
      <tilted>0</tilted></_>
    <_>
      <rects>
        <_>
          12 14 10 2 -1.</_>
        <_>
          12 14 5 1 2.</_>
        <_>
          17 15 5 1 2.</_></rects>
      <tilted>0</tilted></_>
    <_>
      <rects>
        <_>
          13 7 4 8 -1.</_>
        <_>
          13 11 4 4 2.</_></rects>
      <tilted>0</tilted></_>
    <_>
      <rects>
        <_>
          13 11 2 10 -1.</_>
        <_>
          13 16 2 5 2.</_></rects>
      <tilted>0</tilted></_>
    <_>
      <rects>
        <_>
          13 11 4 4 -1.</_>
        <_>
          13 13 4 2 2.</_></rects>
      <tilted>0</tilted></_>
    <_>
      <rects>
        <_>
          13 14 6 4 -1.</_>
        <_>
          13 16 6 2 2.</_></rects>
      <tilted>0</tilted></_>
    <_>
      <rects>
        <_>
          13 17 4 4 -1.</_>
        <_>
          13 17 2 2 2.</_>
        <_>
          15 19 2 2 2.</_></rects>
      <tilted>0</tilted></_>
    <_>
      <rects>
        <_>
          14 6 4 8 -1.</_>
        <_>
          14 6 2 4 2.</_>
        <_>
          16 10 2 4 2.</_></rects>
      <tilted>0</tilted></_>
    <_>
      <rects>
        <_>
          14 7 4 4 -1.</_>
        <_>
          14 7 2 2 2.</_>
        <_>
          16 9 2 2 2.</_></rects>
      <tilted>0</tilted></_>
    <_>
      <rects>
        <_>
          14 7 5 2 -1.</_>
        <_>
          14 8 5 1 2.</_></rects>
      <tilted>0</tilted></_>
    <_>
      <rects>
        <_>
          14 8 6 1 -1.</_>
        <_>
          17 8 3 1 2.</_></rects>
      <tilted>0</tilted></_>
    <_>
      <rects>
        <_>
          14 10 2 9 -1.</_>
        <_>
          14 13 2 3 2.</_></rects>
      <tilted>0</tilted></_>
    <_>
      <rects>
        <_>
          14 11 2 4 -1.</_>
        <_>
          14 13 2 2 2.</_></rects>
      <tilted>0</tilted></_>
    <_>
      <rects>
        <_>
          14 11 3 2 -1.</_>
        <_>
          14 12 3 1 2.</_></rects>
      <tilted>0</tilted></_>
    <_>
      <rects>
        <_>
          14 12 2 3 -1.</_>
        <_>
          15 12 1 3 2.</_></rects>
      <tilted>0</tilted></_>
    <_>
      <rects>
        <_>
          14 12 8 7 -1.</_>
        <_>
          18 12 4 7 2.</_></rects>
      <tilted>0</tilted></_>
    <_>
      <rects>
        <_>
          14 16 2 2 -1.</_>
        <_>
          14 16 1 1 2.</_>
        <_>
          15 17 1 1 2.</_></rects>
      <tilted>0</tilted></_>
    <_>
      <rects>
        <_>
          15 7 2 8 -1.</_>
        <_>
          15 7 1 4 2.</_>
        <_>
          16 11 1 4 2.</_></rects>
      <tilted>0</tilted></_>
    <_>
      <rects>
        <_>
          15 9 1 6 -1.</_>
        <_>
          15 12 1 3 2.</_></rects>
      <tilted>0</tilted></_>
    <_>
      <rects>
        <_>
          15 10 2 2 -1.</_>
        <_>
          15 11 2 1 2.</_></rects>
      <tilted>0</tilted></_>
    <_>
      <rects>
        <_>
          15 15 2 2 -1.</_>
        <_>
          15 16 2 1 2.</_></rects>
      <tilted>0</tilted></_>
    <_>
      <rects>
        <_>
          16 5 4 15 -1.</_>
        <_>
          18 5 2 15 2.</_></rects>
      <tilted>0</tilted></_>
    <_>
      <rects>
        <_>
          16 9 6 9 -1.</_>
        <_>
          19 9 3 9 2.</_></rects>
      <tilted>0</tilted></_></features></cascade>
</opencv_storage>
