<?xml version="1.0"?>
<opencv_storage>
<stage7>
  <maxWeakCount>15</maxWeakCount>
  <stageThreshold>-1.6343173980712891e+00</stageThreshold>
  <weakClassifiers>
    <_>
      <internalNodes>
        0 -1 91089 8.2674235105514526e-02</internalNodes>
      <leafValues>
        -5.3071671724319458e-01 3.7195122241973877e-01</leafValues></_>
    <_>
      <internalNodes>
        0 -1 96129 9.2429784126579762e-04</internalNodes>
      <leafValues>
        -7.0815688371658325e-01 1.7437303066253662e-01</leafValues></_>
    <_>
      <internalNodes>
        0 -1 104479 8.9743174612522125e-04</internalNodes>
      <leafValues>
        -8.8026386499404907e-01 1.4966769516468048e-01</leafValues></_>
    <_>
      <internalNodes>
        0 -1 55024 2.1742936223745346e-02</internalNodes>
      <leafValues>
        -2.7957156300544739e-01 5.5970001220703125e-01</leafValues></_>
    <_>
      <internalNodes>
        0 -1 96175 -4.0599470958113670e-03</internalNodes>
      <leafValues>
        -7.4819380044937134e-01 2.2135952115058899e-01</leafValues></_>
    <_>
      <internalNodes>
        0 -1 142441 -1.7730609397403896e-04</internalNodes>
      <leafValues>
        1.7456091940402985e-01 -5.5280452966690063e-01</leafValues></_>
    <_>
      <internalNodes>
        0 -1 142164 1.6432041302323341e-03</internalNodes>
      <leafValues>
        -7.5354516506195068e-01 1.8347470462322235e-01</leafValues></_>
    <_>
      <internalNodes>
        0 -1 131063 1.3550688512623310e-02</internalNodes>
      <leafValues>
        2.0474274456501007e-01 -5.0689744949340820e-01</leafValues></_>
    <_>
      <internalNodes>
        0 -1 98087 1.9905675435438752e-04</internalNodes>
      <leafValues>
        -4.1151380538940430e-01 2.9097002744674683e-01</leafValues></_>
    <_>
      <internalNodes>
        0 -1 88230 2.5886044022627175e-04</internalNodes>
      <leafValues>
        1.7902484536170959e-01 -7.4229007959365845e-01</leafValues></_>
    <_>
      <internalNodes>
        0 -1 95302 1.0503013618290424e-03</internalNodes>
      <leafValues>
        -8.4904295206069946e-01 1.1679833382368088e-01</leafValues></_>
    <_>
      <internalNodes>
        0 -1 113332 -6.9511858746409416e-03</internalNodes>
      <leafValues>
        -6.9548177719116211e-01 1.6982106864452362e-01</leafValues></_>
    <_>
      <internalNodes>
        0 -1 35105 4.1724317707121372e-03</internalNodes>
      <leafValues>
        1.7414104938507080e-01 -6.6356885433197021e-01</leafValues></_>
    <_>
      <internalNodes>
        0 -1 112249 -1.3920979108661413e-03</internalNodes>
      <leafValues>
        1.9433563947677612e-01 -5.3860628604888916e-01</leafValues></_>
    <_>
      <internalNodes>
        0 -1 132898 8.4829539991915226e-04</internalNodes>
      <leafValues>
        1.4458042383193970e-01 -7.7687573432922363e-01</leafValues></_></weakClassifiers></stage7>
</opencv_storage>
