<?xml version="1.0"?>
<opencv_storage>
<stage4>
  <maxWeakCount>10</maxWeakCount>
  <stageThreshold>-1.4813395738601685e+00</stageThreshold>
  <weakClassifiers>
    <_>
      <internalNodes>
        0 -1 107847 -4.6847008168697357e-02</internalNodes>
      <leafValues>
        4.9373432993888855e-01 -6.3306087255477905e-01</leafValues></_>
    <_>
      <internalNodes>
        0 -1 126104 -1.4725511427968740e-03</internalNodes>
      <leafValues>
        3.2073441147804260e-01 -6.6812938451766968e-01</leafValues></_>
    <_>
      <internalNodes>
        0 -1 75164 -4.1115563362836838e-03</internalNodes>
      <leafValues>
        3.7669268250465393e-01 -4.8485448956489563e-01</leafValues></_>
    <_>
      <internalNodes>
        0 -1 87737 5.7684769853949547e-04</internalNodes>
      <leafValues>
        -7.6971185207366943e-01 2.2294719517230988e-01</leafValues></_>
    <_>
      <internalNodes>
        0 -1 137994 -3.5517774522304535e-02</internalNodes>
      <leafValues>
        6.3348472118377686e-01 -3.1037318706512451e-01</leafValues></_>
    <_>
      <internalNodes>
        0 -1 117506 -1.6208786983042955e-03</internalNodes>
      <leafValues>
        3.3328512310981750e-01 -5.7238829135894775e-01</leafValues></_>
    <_>
      <internalNodes>
        0 -1 57628 8.9577883481979370e-03</internalNodes>
      <leafValues>
        -7.2250628471374512e-01 3.0582684278488159e-01</leafValues></_>
    <_>
      <internalNodes>
        0 -1 37158 -1.5024274587631226e-01</internalNodes>
      <leafValues>
        -5.9005713462829590e-01 3.1765416264533997e-01</leafValues></_>
    <_>
      <internalNodes>
        0 -1 111018 -4.5075494563207030e-04</internalNodes>
      <leafValues>
        2.0613424479961395e-01 -6.8012946844100952e-01</leafValues></_>
    <_>
      <internalNodes>
        0 -1 137862 -1.3264808803796768e-03</internalNodes>
      <leafValues>
        -8.5192173719406128e-01 1.9444668292999268e-01</leafValues></_></weakClassifiers></stage4>
</opencv_storage>
