<?xml version="1.0"?>
<opencv_storage>
<cascade>
  <stageType>BOOST</stageType>
  <featureType>HAAR</featureType>
  <height>24</height>
  <width>24</width>
  <stageParams>
    <boostType>GAB</boostType>
    <minHitRate>9.9099999666213989e-01</minHitRate>
    <maxFalseAlarm>4.0000000596046448e-01</maxFalseAlarm>
    <weightTrimRate>9.4999999999999996e-01</weightTrimRate>
    <maxDepth>1</maxDepth>
    <maxWeakCount>100</maxWeakCount></stageParams>
  <featureParams>
    <maxCatCount>0</maxCatCount>
    <featSize>1</featSize>
    <mode>BASIC</mode></featureParams>
  <stageNum>9</stageNum>
  <stages>
    <!-- stage 0 -->
    <_>
      <maxWeakCount>3</maxWeakCount>
      <stageThreshold>-1.3499538898468018e+00</stageThreshold>
      <weakClassifiers>
        <_>
          <internalNodes>
            0 -1 10 6.4935372211039066e-03</internalNodes>
          <leafValues>
            -9.5291477441787720e-01 5.7565790414810181e-01</leafValues></_>
        <_>
          <internalNodes>
            0 -1 42 -8.6740101687610149e-04</internalNodes>
          <leafValues>
            6.3827770948410034e-01 -7.9739570617675781e-01</leafValues></_>
        <_>
          <internalNodes>
            0 -1 51 4.6320026740431786e-03</internalNodes>
          <leafValues>
            -9.4663488864898682e-01 4.0035665035247803e-01</leafValues></_></weakClassifiers></_>
    <!-- stage 1 -->
    <_>
      <maxWeakCount>5</maxWeakCount>
      <stageThreshold>-1.4652709960937500e+00</stageThreshold>
      <weakClassifiers>
        <_>
          <internalNodes>
            0 -1 30 2.8088041581213474e-03</internalNodes>
          <leafValues>
            -8.6757993698120117e-01 4.1666665673255920e-01</leafValues></_>
        <_>
          <internalNodes>
            0 -1 54 2.7515790425240993e-03</internalNodes>
          <leafValues>
            -7.9107862710952759e-01 4.7527793049812317e-01</leafValues></_>
        <_>
          <internalNodes>
            0 -1 24 3.7468662485480309e-03</internalNodes>
          <leafValues>
            -8.2938617467880249e-01 3.7291628122329712e-01</leafValues></_>
        <_>
          <internalNodes>
            0 -1 19 1.2552626430988312e-03</internalNodes>
          <leafValues>
            -6.4810764789581299e-01 4.9991324543952942e-01</leafValues></_>
        <_>
          <internalNodes>
            0 -1 37 -1.5371770132333040e-03</internalNodes>
          <leafValues>
            4.6857887506484985e-01 -7.3717564344406128e-01</leafValues></_></weakClassifiers></_>
    <!-- stage 2 -->
    <_>
      <maxWeakCount>4</maxWeakCount>
      <stageThreshold>-7.9393708705902100e-01</stageThreshold>
      <weakClassifiers>
        <_>
          <internalNodes>
            0 -1 36 3.6347307264804840e-02</internalNodes>
          <leafValues>
            -6.5326184034347534e-01 6.0629922151565552e-01</leafValues></_>
        <_>
          <internalNodes>
            0 -1 23 -1.1616243980824947e-02</internalNodes>
          <leafValues>
            -7.9513812065124512e-01 4.8349487781524658e-01</leafValues></_>
        <_>
          <internalNodes>
            0 -1 26 -1.5610667178407311e-03</internalNodes>
          <leafValues>
            3.8674235343933105e-01 -7.2655028104782104e-01</leafValues></_>
        <_>
          <internalNodes>
            0 -1 22 1.3611440081149340e-03</internalNodes>
          <leafValues>
            -8.7670999765396118e-01 2.6772055029869080e-01</leafValues></_></weakClassifiers></_>
    <!-- stage 3 -->
    <_>
      <maxWeakCount>6</maxWeakCount>
      <stageThreshold>-1.6492801904678345e+00</stageThreshold>
      <weakClassifiers>
        <_>
          <internalNodes>
            0 -1 48 6.9152191281318665e-03</internalNodes>
          <leafValues>
            -7.5956284999847412e-01 3.3333334326744080e-01</leafValues></_>
        <_>
          <internalNodes>
            0 -1 44 2.6504904963076115e-03</internalNodes>
          <leafValues>
            -5.8937275409698486e-01 3.9299938082695007e-01</leafValues></_>
        <_>
          <internalNodes>
            0 -1 35 -4.1389269754290581e-03</internalNodes>
          <leafValues>
            4.3422657251358032e-01 -5.5012899637222290e-01</leafValues></_>
        <_>
          <internalNodes>
            0 -1 41 3.1675042118877172e-03</internalNodes>
          <leafValues>
            -8.5617697238922119e-01 2.7693572640419006e-01</leafValues></_>
        <_>
          <internalNodes>
            0 -1 29 2.0680567249655724e-03</internalNodes>
          <leafValues>
            -7.5088548660278320e-01 3.8468182086944580e-01</leafValues></_>
        <_>
          <internalNodes>
            0 -1 6 2.3633547127246857e-02</internalNodes>
          <leafValues>
            -3.6916208267211914e-01 6.8969464302062988e-01</leafValues></_></weakClassifiers></_>
    <!-- stage 4 -->
    <_>
      <maxWeakCount>8</maxWeakCount>
      <stageThreshold>-1.2522909641265869e+00</stageThreshold>
      <weakClassifiers>
        <_>
          <internalNodes>
            0 -1 0 4.9691241234540939e-02</internalNodes>
          <leafValues>
            -6.3167589902877808e-01 4.4927537441253662e-01</leafValues></_>
        <_>
          <internalNodes>
            0 -1 19 1.5141495969146490e-03</internalNodes>
          <leafValues>
            -5.9785264730453491e-01 3.9244261384010315e-01</leafValues></_>
        <_>
          <internalNodes>
            0 -1 38 -2.1636190358549356e-03</internalNodes>
          <leafValues>
            3.3919945359230042e-01 -7.0303577184677124e-01</leafValues></_>
        <_>
          <internalNodes>
            0 -1 53 3.5812086425721645e-03</internalNodes>
          <leafValues>
            -8.0616056919097900e-01 2.8185784816741943e-01</leafValues></_>
        <_>
          <internalNodes>
            0 -1 13 2.7835110668092966e-03</internalNodes>
          <leafValues>
            -8.4792470932006836e-01 2.5969210267066956e-01</leafValues></_>
        <_>
          <internalNodes>
            0 -1 60 -1.4537002891302109e-02</internalNodes>
          <leafValues>
            5.8743244409561157e-01 -3.8559651374816895e-01</leafValues></_>
        <_>
          <internalNodes>
            0 -1 8 -3.2083499245345592e-03</internalNodes>
          <leafValues>
            3.6528322100639343e-01 -5.3769659996032715e-01</leafValues></_>
        <_>
          <internalNodes>
            0 -1 56 3.4701853292062879e-04</internalNodes>
          <leafValues>
            2.2441828250885010e-01 -8.9635592699050903e-01</leafValues></_></weakClassifiers></_>
    <!-- stage 5 -->
    <_>
      <maxWeakCount>8</maxWeakCount>
      <stageThreshold>-1.5173507928848267e+00</stageThreshold>
      <weakClassifiers>
        <_>
          <internalNodes>
            0 -1 31 -7.7339954674243927e-02</internalNodes>
          <leafValues>
            4.9857550859451294e-01 -5.8746737241744995e-01</leafValues></_>
        <_>
          <internalNodes>
            0 -1 23 -6.7182239145040512e-03</internalNodes>
          <leafValues>
            -4.8963576555252075e-01 4.6278217434883118e-01</leafValues></_>
        <_>
          <internalNodes>
            0 -1 52 -2.0438022911548615e-03</internalNodes>
          <leafValues>
            4.6904292702674866e-01 -4.6121573448181152e-01</leafValues></_>
        <_>
          <internalNodes>
            0 -1 9 -3.0860910192131996e-03</internalNodes>
          <leafValues>
            3.3459171652793884e-01 -5.9931302070617676e-01</leafValues></_>
        <_>
          <internalNodes>
            0 -1 4 4.2406776919960976e-03</internalNodes>
          <leafValues>
            2.2860357165336609e-01 -8.2829856872558594e-01</leafValues></_>
        <_>
          <internalNodes>
            0 -1 7 5.7677008211612701e-02</internalNodes>
          <leafValues>
            -2.8169178962707520e-01 7.3254400491714478e-01</leafValues></_>
        <_>
          <internalNodes>
            0 -1 46 6.5071368589997292e-03</internalNodes>
          <leafValues>
            -4.6293985843658447e-01 3.5287955403327942e-01</leafValues></_>
        <_>
          <internalNodes>
            0 -1 40 3.9040192496031523e-03</internalNodes>
          <leafValues>
            1.8744607269763947e-01 -7.5699502229690552e-01</leafValues></_></weakClassifiers></_>
    <!-- stage 6 -->
    <_>
      <maxWeakCount>7</maxWeakCount>
      <stageThreshold>-1.0515831708908081e+00</stageThreshold>
      <weakClassifiers>
        <_>
          <internalNodes>
            0 -1 58 -5.9759855270385742e-02</internalNodes>
          <leafValues>
            4.7712418437004089e-01 -5.4103851318359375e-01</leafValues></_>
        <_>
          <internalNodes>
            0 -1 25 2.7385918656364083e-04</internalNodes>
          <leafValues>
            -8.2325726747512817e-01 2.4408356845378876e-01</leafValues></_>
        <_>
          <internalNodes>
            0 -1 11 -2.8187638521194458e-01</internalNodes>
          <leafValues>
            -5.5814594030380249e-01 3.0477049946784973e-01</leafValues></_>
        <_>
          <internalNodes>
            0 -1 16 6.5446710214018822e-03</internalNodes>
          <leafValues>
            -8.1051504611968994e-01 2.4541604518890381e-01</leafValues></_>
        <_>
          <internalNodes>
            0 -1 49 -3.7931476254016161e-03</internalNodes>
          <leafValues>
            2.0940190553665161e-01 -7.0314735174179077e-01</leafValues></_>
        <_>
          <internalNodes>
            0 -1 43 -8.9337129611521959e-04</internalNodes>
          <leafValues>
            2.3820731043815613e-01 -7.3009657859802246e-01</leafValues></_>
        <_>
          <internalNodes>
            0 -1 28 -8.2485675811767578e-03</internalNodes>
          <leafValues>
            -8.1977456808090210e-01 1.6642355918884277e-01</leafValues></_></weakClassifiers></_>
    <!-- stage 7 -->
    <_>
      <maxWeakCount>10</maxWeakCount>
      <stageThreshold>-1.2150236368179321e+00</stageThreshold>
      <weakClassifiers>
        <_>
          <internalNodes>
            0 -1 45 -2.9057689011096954e-02</internalNodes>
          <leafValues>
            -5.7054126262664795e-01 3.8337802886962891e-01</leafValues></_>
        <_>
          <internalNodes>
            0 -1 1 2.7809818275272846e-03</internalNodes>
          <leafValues>
            -6.3046365976333618e-01 2.3963044583797455e-01</leafValues></_>
        <_>
          <internalNodes>
            0 -1 32 1.2759313685819507e-03</internalNodes>
          <leafValues>
            -6.0383319854736328e-01 2.3716835677623749e-01</leafValues></_>
        <_>
          <internalNodes>
            0 -1 17 1.8716303166002035e-03</internalNodes>
          <leafValues>
            -5.2472221851348877e-01 3.2245871424674988e-01</leafValues></_>
        <_>
          <internalNodes>
            0 -1 50 6.4830798655748367e-03</internalNodes>
          <leafValues>
            -8.4510445594787598e-01 1.6196049749851227e-01</leafValues></_>
        <_>
          <internalNodes>
            0 -1 15 5.7598645798861980e-04</internalNodes>
          <leafValues>
            -5.1111507415771484e-01 2.5948968529701233e-01</leafValues></_>
        <_>
          <internalNodes>
            0 -1 3 3.2348260283470154e-02</internalNodes>
          <leafValues>
            -2.9704651236534119e-01 5.0947356224060059e-01</leafValues></_>
        <_>
          <internalNodes>
            0 -1 33 -4.4809445738792419e-02</internalNodes>
          <leafValues>
            -5.3472298383712769e-01 2.9324460029602051e-01</leafValues></_>
        <_>
          <internalNodes>
            0 -1 57 -3.6557599902153015e-02</internalNodes>
          <leafValues>
            4.8370847105979919e-01 -3.0823245644569397e-01</leafValues></_>
        <_>
          <internalNodes>
            0 -1 14 3.7493940908461809e-04</internalNodes>
          <leafValues>
            2.2089906036853790e-01 -7.3349028825759888e-01</leafValues></_></weakClassifiers></_>
    <!-- stage 8 -->
    <_>
      <maxWeakCount>12</maxWeakCount>
      <stageThreshold>-1.2456560134887695e+00</stageThreshold>
      <weakClassifiers>
        <_>
          <internalNodes>
            0 -1 2 7.4384018778800964e-02</internalNodes>
          <leafValues>
            -5.1946973800659180e-01 4.3344709277153015e-01</leafValues></_>
        <_>
          <internalNodes>
            0 -1 34 -3.9209313690662384e-03</internalNodes>
          <leafValues>
            3.1713789701461792e-01 -4.8232448101043701e-01</leafValues></_>
        <_>
          <internalNodes>
            0 -1 59 -1.0571789462119341e-03</internalNodes>
          <leafValues>
            2.6216369867324829e-01 -5.6067103147506714e-01</leafValues></_>
        <_>
          <internalNodes>
            0 -1 12 -1.8393392674624920e-03</internalNodes>
          <leafValues>
            -6.3539648056030273e-01 2.0164358615875244e-01</leafValues></_>
        <_>
          <internalNodes>
            0 -1 55 -1.1611606460064650e-03</internalNodes>
          <leafValues>
            -7.7713656425476074e-01 1.7427791655063629e-01</leafValues></_>
        <_>
          <internalNodes>
            0 -1 20 -6.3982501160353422e-05</internalNodes>
          <leafValues>
            1.9686323404312134e-01 -5.4293769598007202e-01</leafValues></_>
        <_>
          <internalNodes>
            0 -1 39 -8.5444154683500528e-04</internalNodes>
          <leafValues>
            2.0497031509876251e-01 -6.1277741193771362e-01</leafValues></_>
        <_>
          <internalNodes>
            0 -1 27 1.8667541444301605e-03</internalNodes>
          <leafValues>
            1.0202658921480179e-01 -7.8629565238952637e-01</leafValues></_>
        <_>
          <internalNodes>
            0 -1 18 1.6022883937694132e-04</internalNodes>
          <leafValues>
            1.5073093771934509e-01 -7.1083432435989380e-01</leafValues></_>
        <_>
          <internalNodes>
            0 -1 47 2.0902110263705254e-03</internalNodes>
          <leafValues>
            -5.2005970478057861e-01 2.6226603984832764e-01</leafValues></_>
        <_>
          <internalNodes>
            0 -1 5 7.4777705594897270e-03</internalNodes>
          <leafValues>
            -2.8196728229522705e-01 4.3304315209388733e-01</leafValues></_>
        <_>
          <internalNodes>
            0 -1 21 -1.2278160080313683e-02</internalNodes>
          <leafValues>
            -6.7794567346572876e-01 2.1195624768733978e-01</leafValues></_></weakClassifiers></_></stages>
  <features>
    <_>
      <rects>
        <_>
          0 1 14 8 -1.</_>
        <_>
          0 1 7 4 2.</_>
        <_>
          7 5 7 4 2.</_></rects>
      <tilted>0</tilted></_>
    <_>
      <rects>
        <_>
          0 11 10 2 -1.</_>
        <_>
          0 11 5 1 2.</_>
        <_>
          5 12 5 1 2.</_></rects>
      <tilted>0</tilted></_>
    <_>
      <rects>
        <_>
          1 0 14 8 -1.</_>
        <_>
          1 0 7 4 2.</_>
        <_>
          8 4 7 4 2.</_></rects>
      <tilted>0</tilted></_>
    <_>
      <rects>
        <_>
          3 0 8 10 -1.</_>
        <_>
          3 0 4 5 2.</_>
        <_>
          7 5 4 5 2.</_></rects>
      <tilted>0</tilted></_>
    <_>
      <rects>
        <_>
          3 13 16 2 -1.</_>
        <_>
          3 13 8 1 2.</_>
        <_>
          11 14 8 1 2.</_></rects>
      <tilted>0</tilted></_>
    <_>
      <rects>
        <_>
          3 20 10 1 -1.</_>
        <_>
          8 20 5 1 2.</_></rects>
      <tilted>0</tilted></_>
    <_>
      <rects>
        <_>
          4 5 4 15 -1.</_>
        <_>
          6 5 2 15 2.</_></rects>
      <tilted>0</tilted></_>
    <_>
      <rects>
        <_>
          4 7 6 15 -1.</_>
        <_>
          7 7 3 15 2.</_></rects>
      <tilted>0</tilted></_>
    <_>
      <rects>
        <_>
          5 7 6 6 -1.</_>
        <_>
          5 7 3 3 2.</_>
        <_>
          8 10 3 3 2.</_></rects>
      <tilted>0</tilted></_>
    <_>
      <rects>
        <_>
          5 8 6 4 -1.</_>
        <_>
          5 8 3 2 2.</_>
        <_>
          8 10 3 2 2.</_></rects>
      <tilted>0</tilted></_>
    <_>
      <rects>
        <_>
          5 11 12 2 -1.</_>
        <_>
          5 12 12 1 2.</_></rects>
      <tilted>0</tilted></_>
    <_>
      <rects>
        <_>
          6 0 7 24 -1.</_>
        <_>
          6 8 7 8 2.</_></rects>
      <tilted>0</tilted></_>
    <_>
      <rects>
        <_>
          6 7 8 2 -1.</_>
        <_>
          6 8 8 1 2.</_></rects>
      <tilted>0</tilted></_>
    <_>
      <rects>
        <_>
          6 11 6 2 -1.</_>
        <_>
          6 12 6 1 2.</_></rects>
      <tilted>0</tilted></_>
    <_>
      <rects>
        <_>
          6 14 4 2 -1.</_>
        <_>
          6 15 4 1 2.</_></rects>
      <tilted>0</tilted></_>
    <_>
      <rects>
        <_>
          7 11 2 4 -1.</_>
        <_>
          7 11 1 2 2.</_>
        <_>
          8 13 1 2 2.</_></rects>
      <tilted>0</tilted></_>
    <_>
      <rects>
        <_>
          7 11 10 2 -1.</_>
        <_>
          7 12 10 1 2.</_></rects>
      <tilted>0</tilted></_>
    <_>
      <rects>
        <_>
          7 14 4 8 -1.</_>
        <_>
          7 14 2 4 2.</_>
        <_>
          9 18 2 4 2.</_></rects>
      <tilted>0</tilted></_>
    <_>
      <rects>
        <_>
          7 15 2 2 -1.</_>
        <_>
          7 16 2 1 2.</_></rects>
      <tilted>0</tilted></_>
    <_>
      <rects>
        <_>
          7 17 4 4 -1.</_>
        <_>
          7 17 2 2 2.</_>
        <_>
          9 19 2 2 2.</_></rects>
      <tilted>0</tilted></_>
    <_>
      <rects>
        <_>
          8 10 1 2 -1.</_>
        <_>
          8 11 1 1 2.</_></rects>
      <tilted>0</tilted></_>
    <_>
      <rects>
        <_>
          8 11 2 3 -1.</_>
        <_>
          8 12 2 1 2.</_></rects>
      <tilted>0</tilted></_>
    <_>
      <rects>
        <_>
          8 11 3 2 -1.</_>
        <_>
          8 12 3 1 2.</_></rects>
      <tilted>0</tilted></_>
    <_>
      <rects>
        <_>
          8 11 9 1 -1.</_>
        <_>
          11 11 3 1 2.</_></rects>
      <tilted>0</tilted></_>
    <_>
      <rects>
        <_>
          8 11 3 4 -1.</_>
        <_>
          8 13 3 2 2.</_></rects>
      <tilted>0</tilted></_>
    <_>
      <rects>
        <_>
          8 12 5 2 -1.</_>
        <_>
          8 13 5 1 2.</_></rects>
      <tilted>0</tilted></_>
    <_>
      <rects>
        <_>
          8 14 3 4 -1.</_>
        <_>
          8 16 3 2 2.</_></rects>
      <tilted>0</tilted></_>
    <_>
      <rects>
        <_>
          8 19 3 2 -1.</_>
        <_>
          8 20 3 1 2.</_></rects>
      <tilted>0</tilted></_>
    <_>
      <rects>
        <_>
          9 7 6 6 -1.</_>
        <_>
          9 7 3 3 2.</_>
        <_>
          12 10 3 3 2.</_></rects>
      <tilted>0</tilted></_>
    <_>
      <rects>
        <_>
          9 9 4 3 -1.</_>
        <_>
          11 9 2 3 2.</_></rects>
      <tilted>0</tilted></_>
    <_>
      <rects>
        <_>
          9 10 4 2 -1.</_>
        <_>
          11 10 2 2 2.</_></rects>
      <tilted>0</tilted></_>
    <_>
      <rects>
        <_>
          10 0 14 10 -1.</_>
        <_>
          10 0 7 5 2.</_>
        <_>
          17 5 7 5 2.</_></rects>
      <tilted>0</tilted></_>
    <_>
      <rects>
        <_>
          10 9 2 3 -1.</_>
        <_>
          11 9 1 3 2.</_></rects>
      <tilted>0</tilted></_>
    <_>
      <rects>
        <_>
          10 18 4 6 -1.</_>
        <_>
          10 20 4 2 2.</_></rects>
      <tilted>0</tilted></_>
    <_>
      <rects>
        <_>
          10 20 4 4 -1.</_>
        <_>
          10 22 4 2 2.</_></rects>
      <tilted>0</tilted></_>
    <_>
      <rects>
        <_>
          10 20 5 4 -1.</_>
        <_>
          10 22 5 2 2.</_></rects>
      <tilted>0</tilted></_>
    <_>
      <rects>
        <_>
          11 0 4 10 -1.</_>
        <_>
          11 5 4 5 2.</_></rects>
      <tilted>0</tilted></_>
    <_>
      <rects>
        <_>
          11 9 4 4 -1.</_>
        <_>
          13 9 2 4 2.</_></rects>
      <tilted>0</tilted></_>
    <_>
      <rects>
        <_>
          11 10 4 2 -1.</_>
        <_>
          13 10 2 2 2.</_></rects>
      <tilted>0</tilted></_>
    <_>
      <rects>
        <_>
          11 11 4 1 -1.</_>
        <_>
          13 11 2 1 2.</_></rects>
      <tilted>0</tilted></_>
    <_>
      <rects>
        <_>
          11 11 2 6 -1.</_>
        <_>
          11 14 2 3 2.</_></rects>
      <tilted>0</tilted></_>
    <_>
      <rects>
        <_>
          11 11 7 2 -1.</_>
        <_>
          11 12 7 1 2.</_></rects>
      <tilted>0</tilted></_>
    <_>
      <rects>
        <_>
          12 10 2 2 -1.</_>
        <_>
          13 10 1 2 2.</_></rects>
      <tilted>0</tilted></_>
    <_>
      <rects>
        <_>
          12 11 4 1 -1.</_>
        <_>
          14 11 2 1 2.</_></rects>
      <tilted>0</tilted></_>
    <_>
      <rects>
        <_>
          12 11 4 4 -1.</_>
        <_>
          12 11 2 2 2.</_>
        <_>
          14 13 2 2 2.</_></rects>
      <tilted>0</tilted></_>
    <_>
      <rects>
        <_>
          13 0 2 15 -1.</_>
        <_>
          13 5 2 5 2.</_></rects>
      <tilted>0</tilted></_>
    <_>
      <rects>
        <_>
          13 6 6 6 -1.</_>
        <_>
          13 6 3 3 2.</_>
        <_>
          16 9 3 3 2.</_></rects>
      <tilted>0</tilted></_>
    <_>
      <rects>
        <_>
          13 7 6 4 -1.</_>
        <_>
          13 7 3 2 2.</_>
        <_>
          16 9 3 2 2.</_></rects>
      <tilted>0</tilted></_>
    <_>
      <rects>
        <_>
          13 7 6 6 -1.</_>
        <_>
          13 7 3 3 2.</_>
        <_>
          16 10 3 3 2.</_></rects>
      <tilted>0</tilted></_>
    <_>
      <rects>
        <_>
          13 8 3 4 -1.</_>
        <_>
          13 10 3 2 2.</_></rects>
      <tilted>0</tilted></_>
    <_>
      <rects>
        <_>
          13 10 5 6 -1.</_>
        <_>
          13 13 5 3 2.</_></rects>
      <tilted>0</tilted></_>
    <_>
      <rects>
        <_>
          13 11 4 4 -1.</_>
        <_>
          13 13 4 2 2.</_></rects>
      <tilted>0</tilted></_>
    <_>
      <rects>
        <_>
          13 17 4 4 -1.</_>
        <_>
          13 17 2 2 2.</_>
        <_>
          15 19 2 2 2.</_></rects>
      <tilted>0</tilted></_>
    <_>
      <rects>
        <_>
          14 11 2 4 -1.</_>
        <_>
          14 13 2 2 2.</_></rects>
      <tilted>0</tilted></_>
    <_>
      <rects>
        <_>
          14 11 3 2 -1.</_>
        <_>
          14 12 3 1 2.</_></rects>
      <tilted>0</tilted></_>
    <_>
      <rects>
        <_>
          14 12 2 3 -1.</_>
        <_>
          15 12 1 3 2.</_></rects>
      <tilted>0</tilted></_>
    <_>
      <rects>
        <_>
          14 14 3 4 -1.</_>
        <_>
          14 16 3 2 2.</_></rects>
      <tilted>0</tilted></_>
    <_>
      <rects>
        <_>
          15 4 6 14 -1.</_>
        <_>
          18 4 3 14 2.</_></rects>
      <tilted>0</tilted></_>
    <_>
      <rects>
        <_>
          15 5 6 16 -1.</_>
        <_>
          18 5 3 16 2.</_></rects>
      <tilted>0</tilted></_>
    <_>
      <rects>
        <_>
          15 11 4 2 -1.</_>
        <_>
          15 11 2 1 2.</_>
        <_>
          17 12 2 1 2.</_></rects>
      <tilted>0</tilted></_>
    <_>
      <rects>
        <_>
          16 6 4 10 -1.</_>
        <_>
          18 6 2 10 2.</_></rects>
      <tilted>0</tilted></_></features></cascade>
</opencv_storage>
