<?xml version="1.0"?>
<opencv_storage>
<stage3>
  <maxWeakCount>6</maxWeakCount>
  <stageThreshold>-1.6492801904678345e+00</stageThreshold>
  <weakClassifiers>
    <_>
      <internalNodes>
        0 -1 131009 6.9152191281318665e-03</internalNodes>
      <leafValues>
        -7.5956284999847412e-01 3.3333334326744080e-01</leafValues></_>
    <_>
      <internalNodes>
        0 -1 126113 2.6504904963076115e-03</internalNodes>
      <leafValues>
        -5.8937275409698486e-01 3.9299938082695007e-01</leafValues></_>
    <_>
      <internalNodes>
        0 -1 114247 -4.1389269754290581e-03</internalNodes>
      <leafValues>
        4.3422657251358032e-01 -5.5012899637222290e-01</leafValues></_>
    <_>
      <internalNodes>
        0 -1 119524 3.1675042118877172e-03</internalNodes>
      <leafValues>
        -8.5617697238922119e-01 2.7693572640419006e-01</leafValues></_>
    <_>
      <internalNodes>
        0 -1 103662 2.0680567249655724e-03</internalNodes>
      <leafValues>
        -7.5088548660278320e-01 3.8468182086944580e-01</leafValues></_>
    <_>
      <internalNodes>
        0 -1 53670 2.3633547127246857e-02</internalNodes>
      <leafValues>
        -3.6916208267211914e-01 6.8969464302062988e-01</leafValues></_></weakClassifiers></stage3>
</opencv_storage>
